2.2111552356040002e-05
0
716 -527 -57 -369 -277 -780 260 -897 2587 -500 1904 420 -382 -270 789 294 1129 -379 -494 -370 -165 329 671 -222 1226 -217 -304 -632 674 1124 1049 450 497 -668 -324 -259 -40 903 -693 653 1075 -270 981 815 2306 -380 1548 -117 579 -352 -898 -185 97 1608 529 -581 -582 -226 -340 576 -123 -819 1247 268 224 1453 -222 -688 -514 1312 1835 -479 604 618 1186 -471 -350 -276 757 1882 838 -590 -51 -93 -289 865 -700 276 793 -277 -318 2062 334 1848 -318 -704 330 -353 -118 -129 304 2331 1015 1487 -298 785 408 -63 254 -112 -970 -457 -212 -630 704 -424 145 233 -92 -552 -696 -140 -371 -175 1336 616 -729 983 -574 -873 -657 -473 -596 -203 -1267 1360 422 -882 1620 761 -335 626 310 499 -844 125 -396 -578 415 -573 -137 -860 -142 -579 563 1221 -316 109 81 -404 1358 -310 99 -678 36 1198 2653 1805 832 -282 -1148 -1177 -276 -275 -324 -713 -1126 1518 -271 -42 -272 -153 1794 -190 885 -547 1352 379 1990 108 -700 924 68 -250 -1095 -325 1226 387 1814 -84 1928 732 1333 1784 -340 -501 494 -450 -134 -606 1404 1696 178 371 -284 622 -874 155 -322 -155 1841 -278 869 1077 -278 2257 -237 -434 780 -36 -401 1484 -1232 451 -478 878 622 -722 578 -297 -222 1836 -689 -1047 -114 235 472 2347 -32 1036 373 1786 1553 -58 -747 1341 2704 -292 -240 227 312 -361 157 642 636 1140 10 151 531 -1154 327 -507 -250 -1124 -172 946 763 2454 714 -111 643 -178 277 -244 1983 647 1468 -250 617 277 818 -802 479 602 -379 -634 -304 2201 -298 -60 560 1610 1684 -275 -215 -723 -549 -237 1011 680 -270 -436 -446 470 -19 1321 826 1732 -157 -276 813 -477 292 -390 -618 -70 -541 -561 1466 -523 1040 -252 622 -379 196 247 -117 -1011 2455 297 -469 399 711 -186 -1344 1846 -597 1091 634 -1324 140 -206 244 -700 -313 1858 2031 -280 -681 61 -366 -506 -96 1489 1563 511 -461 -277 -448 -440 7 -18 864 813 -647 24 -290 385 -260 61 286 -736 -334 -446 -1089 -441 1726 1510 80 -306 -320 -276 -574 -367 1142 857 -749 -145 -1379 -633 -768 -873 983 -867 12 1549 -226 800 286 1260 -390 -699 -395 1885 2045 1861 -176 -322 -355 16 -298 -284 -1646 1003 -190 -653 1046 1436 994 -358 655 1641 2077 -327 47 146 7 -85 109 -433 305 -375 1238 1261 -250 -206 822 523 622 531 -849 1122 -309 -328 941 -885 -27 1967 266 -560 589 -324 -629 -206 680 -19 -270 -1101 -471 -228 -545 -272 -445 -730 -789 -68 -675 1356 -448 -57 -277 -770 -126 -417 -284 624 1585 596 1138 -707 195 -331 -286 -401 913 389 1056 74 -852 -377 -270 750 1248 172 342 -270 2256 600 -284 855 -379 765 