2.5095075373421093e-05
0
-148 1056 -176 -256 970 532 1800 -248 1536 -771 711 -1009 532 163 427 113 1874 757 1859 -689 -461 156 1188 -470 -862 -126 1346 -484 508 -238 -774 591 301 -1210 48 -798 653 275 333 -303 937 -232 -113 895 -208 -266 1781 -698 -457 -246 462 23 1040 1431 48 -253 -201 42 295 661 805 -6 1393 726 1698 1160 1284 1703 -238 443 526 160 -266 566 -71 37 -379 -272 -64 440 768 320 -458 369 585 1553 1309 -686 -238 339 1492 1471 534 1311 648 -531 1475 889 81 796 2153 -295 -24 1487 -1215 -72 732 -168 236 1937 790 -98 -344 -428 -280 1154 1409 -139 -257 -318 -238 818 177 2239 997 -270 -376 -541 1960 417 -411 200 884 756 -589 95 1196 1456 525 -643 -361 1570 2213 417 -686 -331 729 906 -185 -449 -263 -851 709 525 309 -38 69 -238 -247 370 1124 676 -376 -409 -368 172 -244 274 802 284 949 -168 -257 -22 -389 375 1863 -291 -290 -642 668 603 -302 1682 -637 -238 -604 -290 -1074 773 -604 -206 371 956 1781 385 866 982 1944 -108 1685 -290 -265 -269 -407 502 -300 -857 2126 -237 298 -357 41 1103 530 -804 1655 -249 450 1288 -266 -286 -238 -284 104 -904 733 -316 601 -378 8 -261 615 620 515 326 -182 -441 -557 1175 -321 -89 8 376 135 -238 -207 227 426 1559 -108 -967 -146 -995 -824 -477 -175 -554 1158 1500 -311 -226 -257 -301 -465 1328 -241 1164 1551 280 -227 1162 -238 1923 5 -145 -305 1086 520 1075 -394 360 -265 1155 1127 -1292 1041 35 -305 -632 -282 -644 177 1470 652 -415 -135 -350 449 53 456 -18 1483 1996 -317 1129 -238 892 -292 -210 -268 -267 2016 50 41 -147 -238 -446 282 844 -120 1429 1993 -446 -700 -248 -230 -242 -197 522 56 93 -653 -898 -368 -342 350 -414 130 -230 -444 -432 -244 -533 -1063 647 -135 847 -189 619 -583 -3 1083 1786 656 2179 -427 -295 -304 -238 -220 -714 -506 637 -242 234 -707 -239 -444 -427 1791 375 1437 -183 1977 -300 -404 449 -444 -319 -598 -686 -498 -711 -278 -303 452 2429 942 202 239 1209 -614 -49 1871 1479 -240 -250 -730 -580 394 359 185 650 -1063 1391 -1643 -275 -240 -279 709 -223 -643 291 -2 1942 -1040 1857 -745 -928 626 -423 1439 1762 -266 -276 -1275 -36 2143 855 771 -702 -22 -315 1233 -158 -630 -1001 -238 367 20 244 -651 -238 -163 -416 1208 -359 -1079 716 -772 1160 -9 835 774 1797 1613 -117 -193 822 -479 1068 2290 -574 -329 87 -98 -282 -184 -168 -566 1424 763 -223 32 -179 11 -203 106 -535 -131 1591 67 -774 -261 1696 40 1918 336 1797 -689 -77 801 134 -238 -257 606 -254 176 -282 -405 -405 -313 232 169 2203 -312 -295 -541 47 1649 -580 