5.338164178300393e-05
0
-122 0 158 14 -163 -42 204 72 -239 -24 -104 254 217 -165 128 -17 -78 34 -170 159 231 -121 209 231 31 81 -33 -114 -107 35 254 -128 -91 -119 213 256 -297 117 23 -139 -104 33 -39 86 -40 -100 -173 -139 -121 -24 -201 262 -114 -118 -70 43 14 -138 360 49 -30 23 50 -120 -34 -193 130 -29 33 -138 133 -361 -143 1 -51 -236 134 181 123 319 -141 253 300 -141 423 4 173 -17 140 2 -120 -109 -25 -34 -58 229 397 302 -199 35 -86 155 100 140 301 77 419 168 114 273 91 233 -314 153 28 145 111 230 179 122 202 -67 3 76 58 -105 203 244 185 5 80 -87 231 8 -158 34 116 -68 -36 139 232 -47 -106 -77 -155 -114 108 28 -118 -181 -281 362 -24 -111 103 -95 257 44 196 -176 183 -151 224 75 93 272 129 -148 319 0 -312 45 -8 -40 217 -160 -167 -131 206 89 -238 -158 81 93 -98 150 103 -87 109 75 -123 141 253 140 -4 -106 -6 383 462 85 -112 -26 -187 187 160 -93 -38 114 377 140 259 -159 -193 159 48 -56 -212 -34 -101 -97 -45 287 -110 -7 185 -125 -157 120 165 108 -190 204 82 104 -281 -121 320 -133 111 49 59 213 -162 -113 -135 113 -2 568 60 273 -117 114 477 165 -125 209 