2.566376620514546e-06
0
5446 -44 1136 1248 4527 6689 -11033 -1861 5187 8004 -286 314 -7576 9029 642 1127 8460 10459 6833 -9104 1213 8242 4582 -1704 5604 3530 6793 8508 -621 951 164 2893 3290 -5934 -2060 2821 -6497 3727 -7588 -1405 7572 13789 -13487 4881 3032 -4426 877 4972 800 9023 60 -3071 6243 4984 11079 -8739 -5863 7125 -1645 -3902 959 -2504 9688 -6953 -1985 3601 -5251 -8165 3269 1585 1839 3456 7138 -4379 -6308 5594 -4645 -403 6528 3029 -3726 1128 390 5140 -2641 7204 6800 -3713 5166 5261 -3919 5336 4104 -1709 -787 641 6246 4721 3348 -770 -778 -1945 4085 -6793 6616 -1201 3602 2847 9021 10024 3628 -4173 2519 4983 -2089 5622 3977 6176 271 5869 3942 8132 -2126 -4656 543 3868 -4108 9244 2572 4432 -667 8856 -5238 5071 -8968 -8656 -2114 5452 2904 2058 4800 -479 -6719 -5876 11361 4289 6582 6380 -3165 9908 -1093 2737 5567 -222 8683 3921 14115 -2503 4068 4330 6096 5809 7538 1779 1318 2680 -2480 1998 3265 1277 4176 -5148 -534 286 -6567 4435 5346 3287 6289 4575 1446 -4550 1131 -2915 -8175 -1779 3723 4108 -4168 -6086 -2177 8905 -1814 8205 5053 6409 711 -9924 2256 6755 -8178 -1461 -5855 -1085 -4648 2355 -8689 1546 -4630 -544 8035 3495 -7673 -4570 4351 10114 -8220 4135 1194 4623 392 4674 2420 -8965 8327 -5282 8154 -3372 3530 7519 7161 -412 -2519 5717 -6464 7939 7825 2812 2447 10053 8453 -4796 -10051 3643 6176 3226 3266 705 4211 8228 -4027 6956 6093 -4827 9075 6148 