7.870901462105808e-06
0
-4643 -2500 -508 6179 -1365 -2954 -1922 3626 -1897 -808 665 5000 -364 -2782 2289 655 4938 453 -4693 -1320 -587 3043 -1981 -49 -1836 -3367 -2463 -1788 915 4664 -205 -4160 1568 -1333 449 4770 2966 61 -99 -2889 -2506 -719 2142 2287 3097 5124 1831 -2694 -870 -1615 2795 -617 -2525 2569 1032 -386 -2090 3019 -158 4969 -370 3652 6818 2471 4069 -533 1093 -4180 3509 1689 5370 -1023 1354 1298 -2166 590 3376 760 1514 -2370 906 4423 -250 2847 -676 2681 2688 936 -1172 199 2236 -4663 523 4252 1263 4206 4270 1070 2012 3397 -1431 -1240 -1028 2976 -2394 -869 2611 1503 -1723 6072 47 2802 -180 -2079 -271 1829 1576 -1577 1482 1705 -3326 -732 -3260 4989 2757 2680 -1015 1545 1336 4391 -3835 -2661 -3687 5369 -1720 1808 -564 4922 571 2730 3333 4080 -2724 -2215 3638 2189 -245 -835 -1304 -3058 -2026 1975 2517 2843 -2685 1874 -1369 1527 4440 1997 3547 1 4443 -1505 -1360 3402 -274 -1316 4 2087 1310 -3572 1321 748 4351 -1683 1849 920 -2002 1970 4752 4147 -2211 3299 88 -1127 369 -4621 -5125 -1512 1715 -3484 2109 5899 478 939 1140 320 3558 3015 -1101 181 1019 178 3643 -3319 -139 -2001 3119 1540 -3801 -4801 -3311 2020 3621 1338 4574 1775 -1213 3375 -282 3017 -2814 1192 920 4952 5037 2080 1578 -202 -11 -604 -3175 4931 -2602 -932 4272 -1441 -3966 -3750 -987 -1335 -4321 5323 925 735 3915 -3868 5150 -1318 1476 413 711 -4159 3601 3838 1143 -922 -2575 -594 -445 2950 11 4616 851 945 -1269 960 -1026 -1669 3210 -2676 -3504 6671 308 4152 -857 3730 6892 2396 -3108 5839 3829 5 168 1488 -2506 3184 1250 827 -552 0 -1931 -1350 333 2820 4049 1581 -822 2562 -1672 49 2964 509 482 3627 4184 -730 3203 -3105 3334 -105 -3522 -392 -3124 3249 4393 628 1116 -278 2902 -3552 1629 -5527 2491 -537 3631 -1908 2482 3441 1756 4044 -2929 1510 2101 -1262 1761 -4924 -1880 -462 4845 -1931 -161 1568 -3950 2395 1445 1650 34 2620 -1094 2294 -896 -2553 -328 5799 -5749 2492 4016 1717 2838 3033 -2214 1353 597 501 -1775 -2824 -2325 -143 2192 275 -574 1029 3231 -1302 3155 3141 1287 4129 -36 1931 1827 679 