1.5131919815002329e-05
0
808 -1040 634 951 -657 -760 984 130 381 -476 401 1473 372 585 2073 996 1318 1059 8 -525 600 -1130 704 -679 -297 301 -2167 1959 810 576 1847 -1059 1772 1635 1256 -1681 -28 69 -81 202 620 -287 -186 1173 1941 522 -1282 1730 467 -490 464 923 -583 -425 493 1295 974 1611 328 1818 -648 160 -683 871 -943 -1092 1624 -605 2227 1387 181 2041 947 -857 205 770 -908 641 616 -360 -205 226 504 786 1783 435 2028 -294 -265 740 1039 -681 -734 1031 141 -171 938 -579 -301 -26 -103 1404 -32 166 379 1526 158 664 -682 943 736 1375 1076 426 -823 -1153 -260 -341 -925 26 -1217 2067 1880 1257 788 297 1414 264 875 1001 193 -779 1296 49 220 634 959 -375 1995 -587 1755 965 594 2060 494 5 -219 209 -978 317 1393 1191 -174 216 132 255 -238 -1280 1014 1538 -297 -1215 -576 -1746 370 1147 -1806 1766 1374 -152 -771 -538 -266 707 -1508 276 2335 156 -1788 664 698 -260 -239 -165 -585 330 358 961 659 711 2189 199 -671 319 601 426 869 -547 1785 -474 336 275 1469 969 -1530 1008 -255 -794 -139 1400 1819 1030 1546 -2175 -287 318 119 1315 -235 -1075 1342 -611 160 1569 834 1446 -1160 142 112 1376 -798 -3 1300 1313 337 -1052 -155 1544 -613 -1870 1304 1506 637 152 -628 1920 -1713 2082 235 166 344 452 -1628 490 291 1098 