3.1131448137536642e-06
0
-2703 -2471 1820 -3923 3134 5472 1062 1254 -3757 -4164 -1698 -561 7057 7262 -2081 -2393 -6931 158 -1084 -6931 -6427 4729 -2016 1047 -3444 7891 -1327 -7306 -1543 155 -802 3060 -1561 -7733 -2075 -597 -7053 5319 1636 7143 -2958 713 -823 -7357 -1419 -1788 13 -1384 -1636 -1477 -339 6105 1707 -3338 -1375 -1535 3990 12415 -1529 13173 -3165 1383 172 -3582 -1103 6780 1470 -1967 9226 -3829 -2733 -1111 -3258 2154 3058 -2467 589 9947 -5959 531 -7535 -1295 -394 7561 54 994 -1373 -4448 -4365 2199 13770 -398 -5111 -1035 5809 -750 -832 -8788 -1538 -7608 4868 1026 3468 5015 1518 -11369 -4474 -5084 632 -5602 10818 5416 557 3 -8625 3095 -1704 -3380 -4469 -49 9692 3184 6193 -4349 2025 2323 -85 -3015 -2643 9616 3794 7458 -743 -4758 5580 -697 11890 642 -3161 -2925 -2917 2491 2972 -1684 5645 -2767 -3756 -2957 -567 2350 -6976 195 336 1638 789 -4206 -3019 -4979 4450 5344 93 2213 1977 -5549 -4070 -3216 -6148 8667 4395 -5842 -881 -895 -7121 3615 1404 2497 2834 7115 -2901 3618 -762 -1386 188 -615 -5226 -2460 -2019 -2488 3746 -5368 -4413 -2180 75 -4145 1088 1190 -3815 6195 -3801 -468 1705 -3943 -6158 -5564 12758 5311 3588 -435 -1350 827 1821 -2115 -3788 2117 1516 10801 -2763 -5226 -5721 -2483 1576 682 4749 1379 -980 -1186 1732 -2752 9898 5917 -3448 -3037 -4417 -2238 8339 3214 6037 -1243 -127 -2698 8147 4146 2990 5011 -899 -5077 -4638 -4580 3682 5641 3345 -444 6146 -2380 -6390 342 