9.27495113458702e-06
0
3831 1748 -1111 -433 -591 -724 2050 -906 -965 976 -1045 1860 368 -627 -534 3044 878 -439 -2327 -1410 1158 736 -479 130 110 -710 -996 -645 150 -1332 2022 3285 2298 1257 1220 2370 -596 842 2234 3272 2277 1490 1822 583 -419 -1540 2879 535 -56 3454 -410 891 -799 -1212 513 1697 449 1276 -849 2255 823 -143 -446 -1754 1789 -2071 1536 -91 991 954 465 1549 855 1565 -1004 1435 -188 2997 -2119 3121 245 262 -1809 1757 -2188 2116 -2583 -1271 410 880 2440 334 998 1751 -1090 1532 -436 1243 1884 444 1125 1163 -1709 -223 789 -302 -1369 -2449 2268 1449 2377 2746 713 -1897 489 1838 -1824 3059 4460 1730 827 443 -1439 -11 -1950 -585 2461 -311 1638 4103 -923 629 3084 -996 4438 2518 3871 485 -992 54 -1000 -697 -161 2107 -670 -866 2094 427 817 948 -906 2687 -1102 499 161 -2424 181 33 3977 3089 1683 -555 -541 -1358 150 -1385 1579 1724 1687 -717 -748 -545 -877 600 -523 1695 1121 409 1121 673 -472 -986 -1266 1669 -692 -1406 1479 -1516 3474 -1602 2499 -9 271 -397 -945 -900 545 -525 5273 -979 2023 -279 -1204 1866 -1133 1075 3358 -965 -137 3156 -54 131 -2070 -1200 1366 179 739 927 -491 -629 -1783 34 3571 1901 1012 2057 3188 1099 357 1937 3327 2444 1479 -662 -69 2910 -997 -694 137 2031 715 1023 -1653 1016 2122 -208 2602 1106 -1617 820 3 -446 -233 -534 -187 1314 2856 1723 1340 -575 -2978 1189 3379 800 1825 1460 275 481 1530 -376 689 85 -239 280 2761 -1210 2238 -1072 -1882 676 443 1380 40 -589 745 2609 -1300 -375 2374 1830 -2330 1789 -1680 2439 2183 -56 1058 -210 3823 -1816 -1385 2787 2128 651 -1276 2582 1604 -1934 -1375 1944 -1380 2802 2694 -1896 3001 -724 3105 207 -2000 1301 -1304 837 -1603 603 -2033 -2262 2147 1235 3211 2089 -1099 -2100 937 2783 1603 2478 -493 1544 -158 -1656 -409 -368 1650 866 549 767 845 -173 -23 799 -923 2771 -932 1887 -206 1225 82 -698 3312 675 -1919 -563 -1036 77 973 -938 -488 -7 -570 3082 2244 -71 3418 3514 1286 1930 1135 2055 1966 -790 2849 1568 -994 1622 