2.129533528070337e-05
0
168 132 141 -149 -110 -223 713 -1321 191 72 470 -316 382 1156 693 486 -106 -230 -153 160 648 71 44 714 283 -516 -841 1317 1578 -201 -154 -511 -94 -64 907 139 216 -845 637 -888 102 431 -167 572 403 211 -292 438 392 173 158 386 -339 -107 39 -248 -620 85 -174 -348 383 -33 462 -403 437 -1060 -166 267 536 -298 -367 -940 311 -216 118 58 -958 403 -100 506 355 -876 -52 184 -58 -524 -707 -755 441 728 189 -708 753 558 -843 484 829 331 -405 -356 -820 794 -82 -88 170 -870 -593 646 342 645 397 -416 465 12 510 -406 -25 -10 541 714 -301 81 -619 198 35 378 1137 584 1677 214 -277 608 97 -690 866 -922 347 172 636 -276 205 -18 812 935 -408 35 660 142 135 282 713 -179 886 765 -245 -696 -207 204 -199 1 699 -64 -438 -51 50 520 -292 126 548 600 -547 273 127 464 371 207 -476 239 -424 10 -602 1041 205 123 589 -745 140 -1000 -115 281 768 -192 622 6 1478 129 41 -445 -281 42 -321 191 -111 -572 497 514 -113 61 -463 -5 262 348 438 -153 -361 -535 757 822 -617 -139 971 428 -228 190 -482 97 -402 995 554 -694 -849 315 -908 -20 514 -15 -601 -158 1316 1005 1092 -681 102 105 475 1050 -753 -157 145 84 161 -339 -18 1086 683 180 