2.4480050502588445e-05
0
-278 -11 -252 190 -377 -252 456 -410 -279 -459 345 561 129 -200 104 -312 -378 -144 638 -329 1490 -288 860 -4 -170 166 -283 63 -529 -773 -276 -609 -222 -29 -629 -120 -463 614 -474 43 203 884 -204 -122 126 637 -292 676 28 270 -196 -239 -250 -203 151 -353 401 132 -489 -29 -462 700 -541 163 32 -362 326 -414 263 319 -106 -223 -773 91 -210 267 -155 -136 -185 -729 -148 -550 -518 -399 -430 -360 66 133 -433 -624 1233 447 -179 -703 71 -306 -129 -197 205 -250 188 -588 -10 -314 9 -369 75 -40 -317 -496 -336 207 1 264 -711 350 -593 -84 -35 -89 -133 -96 -360 -50 -736 -536 -162 -594 333 -289 358 78 65 602 -370 528 -104 317 -369 480 886 -794 -824 42 117 -141 -164 239 468 -113 -153 505 -582 663 -213 -238 249 70 247 59 -39 -286 404 -197 420 417 -107 -50 389 533 463 -46 153 -113 125 771 -188 -250 -519 -425 -304 -474 -415 144 -244 376 224 -6 -219 855 590 -884 -197 277 88 238 -327 125 266 944 -142 -126 -318 -181 -302 -474 352 -186 647 -53 -198 -115 1000 -517 -449 -274 -360 -263 -392 179 295 -327 -387 -566 -477 171 527 254 -219 -349 154 -444 -411 -363 139 -186 7 871 82 -431 -197 -195 -99 -140 454 236 858 126 -191 -496 902 580 -115 -309 -594 -25 628 -768 -435 77 -48 -319 72 -50 397 651 -20 488 92 687 -333 910 541 105 -159 -298 -423 -331 -440 -259 -420 218 -201 426 229 -164 -305 170 -533 -608 -438 423 1032 410 179 399 -126 -194 111 -102 1003 -742 -12 -384 -647 -96 -737 -520 285 -66 -202 -50 -31 -294 -379 131 -184 -688 -299 546 -274 130 -608 -245 104 -82 -309 381 -122 83 295 -607 467 379 -131 386 -393 -183 -365 625 -216 -116 282 403 -157 -324 -731 530 16 -306 199 -280 -79 -747 -49 -552 -1050 -222 -437 -276 -124 -248 -80 -325 572 -416 70 362 266 511 -240 999 -55 -211 -2 -70 61 996 610 -235 -118 -180 -127 204 -238 400 -415 -294 29 -441 -237 -295 108 -146 -243 -243 484 -458 -420 -315 -566 158 -270 -78 1 243 455 -300 405 178 271 -145 306 -285 -162 -454 -574 651 424 318 43 274 -807 -552 -751 -563 1 -435 -603 -332 -182 -242 -236 -11 -158 -533 -149 425 -208 20 75 -54 656 -931 -840 -897 -19 -30 -190 703 -617 -287 134 -29 267 -44 861 -165 1206 -132 -215 373 -341 -514 -179 89 214 -380 -68 563 32 -395 -114 -538 -625 -167 -253 -357 -231 216 -299 -332 -457 859 -164 -658 356 -231 581 -439 -153 -499 -167 127 -198 -98 665 417 219 -287 -241 -457 -154 680 -235 -138 -321 447 -245 362 1061 -347 46 -202 -188 -428 561 -40 -413 -87 -373 -57 -246 59 374 354 -111 7 -55 -316 711 -66 -202 -231 -300 262 454 421 -3 -379 -416 585 -92 175 -485 -306 937 678 -622 -378 -349 -588 -167 -670 -178 -406 107 434 -253 -41 -451 363 -90 -515 488 113 33 -460 -826 -427 -169 -111 64 -222 -756 375 -513 207 -365 -258 307 -241 -144 294 -135 -584 -86 437 629 -249 -72 -246 -272 -148 -688 -493 -60 -227 -226 -194 -988 -137 103 -141 466 -164 177 -203 -347 -78 -462 -560 -224 -743 -166 -272 675 610 -199 -246 63 177 -145 -352 569 111 406 862 754 12 459 120 -67 529 472 -357 -10 193 889 -127 0 229 -274 279 -225 297 -336 -268 -344 -423 35 -380 -412 -185 -273 -450 -114 -352 -1024 -607 -509 356 0 -219 132 34 -508 -78 579 -225 -463 -410 1064 -689 913 351 -244 -534 38 -397 1 -328 978 75 462 -216 235 -354 -408 546 -31 -132 96 -221 -398 -523 -203 -388 -27 -128 734 36 114 36 -428 -211 218 -570 -89 15 664 -294 -312 -359 928 364 -158 -749 -430 -357 -415 -470 60 -130 -121 -382 435 332 -687 -53 -193 652 358 -498 -146 -205 14 -409 272 130 340 -2 -496 -287 -116 -657 -514 -285 313 29 18 -372 153 430 272 -285 579 -196 339 -276 70 -288 -574 49 -145 -309 -314 -373 -440 356 -249 -289 -309 -205 -312 -270 -185 -968 -385 -250 -176 -185 30 -482 543 -144 201 328 -110 -637 -78 -12 282 -620 -791 580 -241 81 -275 -603 -359 -380 -163 -292 170 283 -130 -498 -270 -389 -416 362 -717 556 -282 418 -538 338 557 52 271 227 -345 639 -497 -596 -211 -261 -215 595 -463 213 -322 -605 -587 -173 105 -145 -98 65 -325 -26 -51 -353 16 -260 -67 125 399 65 368 -17 66 -658 -474 -575 -346 -296 -399 348 -62 -73 -232 -211 -80 -83 -457 -734 -2 -134 -470 -264 -367 263 46 -220 191 -40 -46 273 -404 -179 173 -194 112 -95 175 -370 -685 324 -510 -476 146 491 493 -128 -530 385 -167 -605 -551 -728 291 38 337 820 -40 -831 -214 556 -214 -458 -302 -403 -286 -455 199 -166 -652 -235 -152 318 203 506 -37 300 -350 705 142 70 -40 -23 -118 -753 -289 666 183 -292 -357 -483 -332 -250 -373 12 60 477 -294 -131 -248 113 -509 -237 -242 155 99 120 274 892 -109 -29 86 -552 146 -46 481 -22 -655 6 -242 71 55 -524 -639 -57 -235 682 -379 -646 153 45 -92 303 -406 -41 -167 -116 -74 -469 -35 -192 -3 435 -342 -161 -781 -157 363 612 -274 -550 -266 479 -522 -8 46 -216 -81 -547 -25 161 136 -68 -362 191 -477 -832 864 -242 -401 303 133 -584 88 812 -97 -91 -427 242 -947 536 -377 -537 -316 46 331 139 340 466 -537 -517 -437 -331 366 610 278 -368 -310 -493 -408 -81 -21 727 -15 62 -314 -300 -269 307 -432 -212 -150 -286 -192 294 -163 -527 -391 -18 -622 415 -383 -1036 132 37 133 -410 -51 -366 -336 -169 -622 -559 -99 293 -509 -489 -478 -143 -147 13 -107 158 -279 -586 -760 977 -75 -636 -220 -95 -192 -395 271 619 -490 -18 -202 -698 469 127 188 -376 -631 168 -313 -261 -103 -350 -772 -440 -495 458 -395 -388 -484 207 124 -745 9 221 -167 177 -448 -180 275 -567 -327 235 80 81 407 -63 386 91 -139 -50 -357 -339 -266 -550 -294 -70 -143 -234 -69 47 -157 -182 228 104 -17 -115 -116 -252 -565 -568 -129 -463 224 223 151 -776 -659 823 218 -263 -137 744 -390 -504 -247 -533 -414 559 -291 -122 231 476 -537 -539 -183 772 357 -300 312 -372 443 585 -177 821 145 154 -149 -354 -74 222 -244 -134 -248 382 -286 -561 -31 -39 -31 924 -583 215 -129 -743 -286 193 -291 -97 -456 -207 -58 -251 -202 458 -253 336 -439 -448 27 -129 143 -10 -380 587 86 -598 -164 71 -93 -402 -41 -45 -587 -278 -402 -104 -21 -199 126 -428 296 -103 -248 -83 245 -991 -430 792 -126 24 -214 -180 -25 -396 -155 248 -86 349 -165 -534 -103 178 -720 135 -579 114 -29 -314 -173 -204 268 -126 -448 -133 266 362 201 -338 -315 115 -63 466 323 -317 -80 -323 -228 -145 -25 633 -508 156 -254 407 107 -143 236 -324 -101 179 -99 -217 -125 161 -233 -227 -171 -82 214 109 -242 -390 153 -321 219 -65 -212 382 168 -202 557 605 -930 -75 932 155 708 -97 -132 -435 260 -220 -235 -83 -271 -118 -242 -318 -253 -613 -715 5 223 -212 652 -38 203 -369 -268 62 -267 -413 -390 -14 213 -170 -281 14 899 277 -553 -268 572 512 -719 -206 -639 246 -238 452 -557 -137 331 -241 -488 -336 433 422 -505 -7 373 -492 -792 -194 -567 -451 199 172 537 -40 -436 -309 -83 -332 -386 128 -309 -431 -445 608 300 -797 -44 -505 202 429 115 -137 -327 -391 -259 752 268 583 -487 -756 -200 333 -145 -381 46 -408 406 15 753 293 -398 392 362 -125 -53 -127 -474 750 -295 -171 -115 -408 245 446 -227 -325 -151 -182 -742 860 -179 -259 152 63 153 -237 -336 -113 -27 465 -681 -358 231 238 73 162 -256 97 171 123 -419 -582 -688 282 401 -146 -398 85 304 439 146 381 -619 118 -579 -654 -608 561 -494 723 -35 -167 -445 -345 -296 -579 -34 -298 -233 351 -723 -130 -156 -537 -390 -76 50 -173 227 553 -638 559 800 -244 -714 217 483 -127 -100 -726 -340 280 -80 371 91 -97 -251 311 -340 -264 -80 490 233 155 49 137 -474 -39 -86 -658 -18 -495 506 -132 356 99 -366 803 -608 -321 525 689 -277 -446 -334 122 -409 258 585 483 122 -130 -257 -227 -535 710 298 236 370 238 -288 -304 -57 -373 -439 -43 107 -216 457 99 -63 426 -838 -214 602 -104 210 -336 -424 79 -189 -765 -206 240 -387 -99 -368 -436 56 85 -219 -545 -5 56 -238 -93 73 44 -755 27 322 -26 -238 171 228 -442 -262 -279 -333 -382 -273 89 -129 2 48 92 -413 -111 -372 -491 25 104 -17 -310 852 -423 -456 1 -423 -429 65 137 -293 -165 -399 -209 -30 -311 766 -81 -30 -195 -90 394 -908 -875 -363 1258 92 2 174 291 -169 -45 -424 -790 -331 -473 640 -415 -637 -39 -205 -371 -93 141 -396 -264 -513 158 270 -312 -109 -313 385 528 -529 -562 195 521 15 92 344 -470 -384 -308 214 381 -596 23 -318 -484 -479 -674 -488 -276 -628 -155 348 134 304 -258 433 684 -65 -325 -59 -182 -193 -199 -179 -610 -193 -66 87 309 -832 -1220 319 -535 -119 -245 -333 -242 -143 -473 -89 139 -318 -139 -563 772 -280 371 -257 -54 -323 -59 -634 -214 -263 -154 -399 -54 -710 213 -186 -422 -209 -616 11 483 -126 -212 -1013 -57 -12 -266 796 381 -124 -65 691 -446 942 -836 196 -154 -516 288 25 541 -282 495 -235 -456 416 -201 -11 763 314 -542 -176 -231 -421 -399 217 785 59 250 -139 -253 462 479 67 690 -558 -444 -184 -319 711 -561 508 -135 -279 -380 -490 593 -62 -608 -37 -133 97 -262 -146 127 -397 -779 433 -680 -232 131 310 -124 -101 -228 -178 -374 -608 -229 656 -336 -483 -270 -192 29 692 -326 -172 -306 -607 -781 238 -262 606 -233 -369 42 -633 -252 -384 -180 253 -453 -602 -118 -183 397 -444 375 -391 8 9 -488 -506 -375 -329 487 -605 605 56 -142 -241 419 29 245 -760 -230 -75 19 -49 -711 -402 -383 299 563 295 -115 -102 -270 245 544 -572 -186 160 -483 -176 -631 -362 -130 -133 63 546 -49 -396 -285 214 32 431 -704 -332 -674 -184 -188 -359 -929 478 -694 440 278 -854 -678 -74 -528 193 601 193 -663 -110 -286 -288 72 -3 -387 -83 -274 662 -745 -261 451 -111 416 -314 62 321 266 -141 -438 473 163 -591 -283 -193 55 -308 -445 235 320 -220 -522 374 -973 -54 -412 745 424 -232 -16 -197 -378 -990 -680 573 -495 -362 28 428 186 -439 981 -22 -343 -995 38 -342 -667 127 -386 -296 -583 371 -262 -600 -301 90 -283 -155 -290 35 -917 174 70 435 679 -326 -98 -441 280 1067 -656 335 694 146 356 293 -308 -322 -292 211 -249 -298 -97 -511 472 629 -156 -960 -641 -863 -627 91 -47 -78 -394 -551 -356 -251 -149 229 -417 43 300 -147 20 16 -514 -231 97 -237 219 146 -253 -57 -268 -675 539 -3 -428 -529 842 33 -76 370 -193 105 -346 537 57 93 -92 -643 536 121 -358 168 -479 68 130 -54 -462 -125 59 -564 -473 -215 -446 -77 -19 468 425 -343 -397 -242 263 -633 880 -416 -264 -516 78 -65 -471 -527 -150 -388 176 -528 -446 -25 495 -428 -315 512 422 -89 77 -326 -585 274 -292 -297 -173 -455 277 -474 -365 584 -205 -409 -497 -56 -168 -16 -711 -19 -604 -118 462 157 554 544 -46 -359 185 -466 -542 440 150 139 426 163 -367 429 -114 -554 -217 -205 -115 -72 -715 -248 255 -372 -188 -607 -44 601 -530 -340 386 -415 -462 239 -245 -76 93 -118 -85 -263 -203 424 -452 444 -624 -564 -19 115 344 -673 -76 -136 -290 -232 -395 102 -281 -294 540 -233 -183 92 -174 291 -87 -664 595 -313 -288 -328 463 -140 -143 -363 -155 161 -14 -883 401 -427 -305 -565 -70 -285 -748 -10 -27 -221 -278 -50 -48 -455 185 -73 -406 -640 231 -231 -258 -217 332 -85 -320 -268 -273 -526 412 -478 -393 -378 -113 -229 -421 821 -112 163 -424 -204 -161 -215 -389 309 -306 -183 -61 488 281 -670 250 980 -637 -605 -397 -408 -554 384 -305 -409 -840 -84 133 -94 -97 -417 165 520 191 -344 425 60 316 448 -51 -29 29 -244 419 617 558 -204 28 -221 8 -454 -455 -309 -598 -282 -13 -166 -231 -479 -659 -467 258 103 -245 4 211 -558 -393 198 -617 -200 171 -254 -209 -360 -282 1060 -715 588 -597 -221 86 -488 -813 -124 -220 121 17 810 822 414 -415 -350 -164 -300 80 -48 -152 -75 -48 193 611 199 -186 -365 271 -655 262 85 385 653 -386 -503 -447 463 276 -58 751 -1 797 413 -7 -285 185 534 23 -456 -598 -328 325 832 -431 139 322 430 563 -386 250 -477 7 -175 48 -116 -38 411 -55 -414 -303 -197 495 602 524 16 -199 49 848 742 296 273 298 -497 -762 -33 -297 96 448 -827 -317 -134 -782 -314 -193 -432 141 113 708 103 470 530 -333 -273 -341 -56 -636 357 -487 225 204 87 519 58 212 819 -218 47 74 -187 -255 -388 450 -140 1025 -325 -706 -5 85 -6 -10 136 130 215 -209 510 -68 772 505 258 148 -383 223 -108 -560 -310 -613 643 589 -89 -277 -108 -338 260 -231 148 64 80 -143 470 -500 6 -189 82 -532 244 -290 180 -406 -711 -562 -178 520 254 438 20 -719 -212 749 258 -369 -54 -12 507 -246 175 -499 -528 -235 -653 10 -96 -365 -212 -73 192 1253 36 -288 507 55 367 122 173 -314 -100 -361 -140 -297 162 -171 -221 -731 648 -355 -696 -171 298 -308 -656 412 -201 -428 -370 -52 -305 -291 173 -69 -162 -207 56 766 -434 1155 -575 442 -656 288 -404 -360 -520 382 797 -637 -284 522 -129 -431 -251 -14 -360 492 -240 -38 -930 -467 511 189 551 -88 403 269 -110 217 105 -559 -522 554 -200 5 -284 -527 -252 -217 -468 -436 -562 -327 -323 77 -538 -214 31 -394 -406 269 558 -17 -352 -260 -642 13 -177 -377 -565 8 -402 -388 -287 -664 -577 -121 -607 -244 -550 -308 578 -364 -124 -325 629 -364 -286 -292 113 -605 307 -206 245 -290 702 -188 -106 -291 125 -58 -518 -405 -268 -102 -280 -481 81 -362 296 -47 -378 -78 27 -152 367 -11 -146 -375 227 -523 -130 517 -439 -596 -473 273 467 285 -82 -47 701 -369 -526 464 -49 -200 -268 -667 115 75 192 -392 148 -537 -534 47 -457 378 -303 -338 649 733 -195 475 779 -153 -686 -145 -791 -652 312 -149 -11 -290 42 -198 -203 186 323 -10 -474 424 143 -392 -292 -763 -575 295 503 -83 -665 -265 31 -353 606 115 -55 -377 98 -312 -502 -424 -204 -269 262 -56 -138 -274 765 -112 210 320 36 -238 -301 -312 -230 -484 42 -35 -434 21 -103 79 -95 -352 96 -648 -425 -379 198 277 -32 -418 680 -271 141 -371 -350 126 -607 -365 165 -208 338 -216 425 -325 210 -73 -593 208 -232 -86 17 55 107 254 -112 -226 236 -559 -58 -21 0 257 -460 -263 13 360 76 261 -166 513 -307 218 -43 204 -406 285 -215 -276 152 252 152 -554 99 -260 -274 156 -181 -360 178 -223 -7 -787 -297 47 25 -524 233 -250 -280 -202 -161 -902 -69 -585 473 -174 -325 -151 -38 40 71 -116 -4 -172 291 -276 -362 621 453 176 -653 699 267 -741 228 -485 -331 404 5 167 444 -516 -220 111 -134 512 -574 -102 -635 -306 -200 -290 -165 -370 82 -272 -7 -237 -507 158 -107 -127 -679 -285 262 581 -401 -429 -408 117 -109 -729 -59 82 -13 293 108 -386 470 790 -124 -252 -195 -248 -252 -390 541 325 -220 -211 -73 -609 154 -480 -42 -601 -240 -20 -328 -193 -50 621 -269 236 -84 -275 -55 -245 -708 -20 292 -165 -474 -146 -67 -154 966 -313 526 -640 -520 2 -699 1025 -57 -647 198 30 -649 130 -256 -44 -313 490 29 -280 176 -552 -71 82 -38 248 -340 733 323 46 -260 -926 -113 587 -284 703 135 -511 358 -542 -87 33 660 -405 -1190 -178 -273 -143 48 134 35 -260 -309 1 -169 -542 -123 -70 576 -80 -208 315 -46 -269 -254 -337 174 -232 389 -34 -777 -115 218 -308 98 523 -377 -436 227 -219 -500 738 -376 -460 -139 -792 1022 78 299 463 -324 -185 250 153 -456 241 -232 -89 -9 46 -312 30 296 20 -340 -441 -208 218 398 -260 177 -216 313 -540 -1015 -626 88 -129 -525 -532 458 216 245 106 -946 -1050 -136 -141 -245 -459 76 1014 -620 -349 336 414 754 -146 247 -452 770 -166 617 53 -192 5 -131 -649 -321 -103 -258 -177 -157 561 235 332 -358 -624 57 -432 590 638 106 428 341 -345 -424 -57 -101 -621 -628 -108 -44 -223 655 204 -460 -347 -123 22 -125 -451 -165 -323 -371 -36 -152 -505 246 57 -490 -432 -249 -458 -266 298 17 326 -234 -363 -390 212 94 -1026 350 -219 680 -329 -212 174 50 112 -219 -447 345 -284 -189 -411 102 167 -464 -293 -458 295 -229 473 -434 -302 276 723 -687 20 -515 540 211 -325 -25 426 -488 506 -473 -11 -541 499 -821 21 -73 -284 -198 267 -539 177 -144 279 -123 -243 -298 57 495 -260 33 485 -380 -215 -544 -105 -286 -29 326 -486 -223 -190 -344 -109 -313 491 137 12 -227 -298 -313 148 791 -199 491 -253 460 -606 -422 -461 57 -337 -798 -446 -121 164 -239 213 410 -424 104 -79 -109 194 402 -122 -792 -247 -482 -448 -665 182 209 42 516 536 -220 -103 -340 77 24 425 1200 127 -596 -292 -197 -597 -636 -324 50 -117 -287 -250 -7 -437 -235 2 -27 -125 -314 2 -609 -271 299 1210 -278 -214 -160 111 178 467 518 -254 325 393 -111 641 -559 -23 -607 -260 -721 -135 18 138 428 -305 -233 83 -300 996 35 -62 -867 -297 -26 90 -689 21 -589 -172 65 -556 529 -6 -288 -390 -135 -240 -165 652 91 -145 -555 -47 18 -304 -640 175 251 203 73 555 -340 -269 -222 197 -49 -243 789 -204 -301 -539 -186 -628 -364 424 -311 85 857 -372 -555 -319 -414 -50 -197 -730 -514 -186 -285 -188 167 82 62 -349 -267 -351 -402 -640 44 653 -103 -206 348 -625 -237 -218 -849 -130 -182 -111 -197 -286 -408 -879 129 -118 212 26 -575 -347 772 209 -462 -391 243 253 -549 505 -266 -310 -221 -408 204 155 -537 378 306 -142 -586 323 282 57 -315 1092 -41 144 -240 915 -106 -280 -119 263 -469 -234 -320 -351 244 242 -704 -743 -402 -173 -394 41 -256 294 -122 346 -237 -394 0 522 -318 -68 -235 326 424 -503 -186 571 232 -166 -170 -349 505 340 205 158 -434 -543 -650 321 27 -328 -505 89 -93 -333 584 -588 12 4 -542 348 -111 -89 149 611 39 -422 -244 54 77 -100 -216 -305 286 -542 377 -270 -217 61 229 -405 -219 -355 -37 332 1041 -7 -344 -291 80 174 38 -127 371 236 473 -626 178 277 -95 327 -596 -174 -455 -135 -297 345 103 433 -127 -232 -509 549 234 -200 -154 211 -260 -416 208 -205 -246 -196 158 -146 957 -496 -181 -584 418 48 655 -213 -463 570 -422 -28 -342 -305 -202 -131 -513 -270 -457 -631 152 -93 -159 -249 -381 96 -601 427 -614 -236 -71 -41 442 -43 227 -414 -88 43 146 169 152 -472 -20 -340 -15 -250 -503 -175 199 729 150 -463 122 -411 -1007 97 217 86 -228 -403 42 -460 -182 -239 -620 -343 -295 -301 3 472 -533 1056 270 -402 -185 -294 1198 642 183 -95 355 -300 -505 430 -318 110 -157 -172 -225 -273 -508 498 -42 336 -380 110 -29 609 -379 -140 -184 188 -32 -28 -320 642 318 612 625 -154 -365 -569 -374 -296 284 -139 -307 -272 -454 -326 -82 -357 -335 172 -98 -118 435 -359 119 -124 828 -381 -915 -445 -473 -190 228 -122 114 869 -618 -236 -222 486 246 70 -485 -591 -119 -489 73 -153 -268 -196 969 -668 383 97 901 270 215 5 51 -148 -221 77 184 -17 -176 -53 -149 441 263 -32 34 -379 372 487 -110 -556 246 -142 -82 192 -335 -177 501 93 -341 206 398 -12 -260 -135 -296 -346 378 264 -672 -407 201 -42 -431 21 -134 47 242 -17 250 -157 -222 -685 -183 88 -275 -371 410 218 65 -70 -196 -758 -237 151 -127 -231 22 -293 -35 748 479 -641 -78 -289 -196 -447 -141 -275 72 44 -365 -684 -194 -592 -465 -543 407 -398 -220 615 628 -415 89 -256 -208 53 -327 484 -390 -701 317 -14 -84 398 -178 -743 58 -152 -270 -16 451 -364 -276 349 -37 29 -193 165 2 -401 -268 -100 -336 -182 163 -452 -117 -229 153 -362 -138 -216 -84 534 381 -220 -368 266 142 41 -300 -523 -260 80 -690 -3 -720 -212 -709 -453 271 -294 -294 -326 75 294 -178 -121 818 76 518 419 137 -574 -634 -199 408 -110 212 -215 -210 -219 503 -682 441 73 -297 -219 133 -216 -544 134 112 -361 485 -131 20 -405 484 -34 -124 215 -557 828 -573 661 -665 -565 55 0 500 -219 38 80 -300 582 -110 82 182 -46 361 334 384 -569 53 141 13 -1 -268 -497 360 149 434 125 -540 462 331 111 -285 328 -191 497 -300 -165 -622 -479 -107 -168 -872 -490 622 -535 -111 -13 -98 -831 212 -175 -150 -445 -208 -703 -86 -184 -304 -46 -246 57 483 -269 -596 -173 853 -792 -407 -100 313 80 -15 -397 -771 -558 58 664 -134 42 382 -517 -313 -299 -199 -338 -230 -358 -437 -638 -648 -180 175 747 704 -376 -45 78 -216 80 374 156 -132 122 60 -356 -220 828 128 -70 -693 -412 331 28 271 297 -336 481 -54 72 -775 -53 -681 -666 -267 222 318 -146 -401 -92 288 61 -276 61 -36 -35 116 -94 660 -444 -418 -709 329 293 -581 -222 -343 -257 174 508 -66 -114 