3.265803002926325e-05
0
-147 -704 -202 76 -745 -397 -367 322 -339 -584 126 -125 -41 -629 -213 1824 -354 243 1587 175 -857 761 -86 563 3273 -232 339 -180 270 -113 206 -148 298 581 471 -652 -219 0 219 2038 -176 -265 448 -81 477 1540 620 565 787 555 1395 736 234 -150 -576 1281 -349 2602 -183 350 -253 -304 -349 1240 -320 230 -213 -405 437 1236 585 -238 -194 -402 986 849 441 -289 267 822 -379 677 1097 849 -868 167 896 553 -501 -141 765 -1078 299 -314 -657 1062 -656 -444 576 889 677 -256 74 -295 572 471 -308 -415 -688 1234 -305 140 -76 -99 229 842 1146 -316 124 -764 -336 364 -360 1622 -83 -474 -247 1645 -634 125 -240 -325 965 -179 1559 106 -824 1720 287 -686 -304 -784 -384 239 1665 374 -126 1681 1494 -165 -145 623 -293 -398 1549 1486 -285 -207 -151 -243 214 1081 -96 2427 451 53 1224 1042 232 -568 944 -179 85 346 1900 -469 2149 -305 -207 623 689 53 1136 1319 -285 2160 195 1237 590 969 967 -117 710 -489 354 -315 -370 -476 1290 -315 2077 1078 1512 391 -328 -650 -305 -201 1341 436 -501 -262 -215 -577 18 865 -321 -452 593 -70 293 -288 -197 1054 659 460 2441 -200 -226 -353 -625 -247 2014 2505 160 76 874 721 198 1489 547 327 127 207 -235 -811 1393 -626 907 1290 193 -256 450 173 -210 963 -55 -173 -720 838 -530 -127 510 1530 792 -244 -282 -570 -249 -523 254 1870 -169 1534 2477 766 1115 -80 -90 639 -208 -157 140 -286 1770 1158 311 -571 682 -273 -368 1634 1667 1014 -338 -375 976 1008 2153 -196 -305 -820 -641 -404 -639 -671 -736 -396 367 -316 -591 1866 -539 -590 -149 1638 -152 -462 598 -386 2629 -482 866 -174 -710 1298 1513 -467 -593 -353 -752 1770 -489 219 2487 1421 -777 13 -252 1280 -485 -465 1547 -242 575 13 -444 -387 -225 -159 -759 -587 -241 -226 -485 -202 -219 -98 -702 1872 679 1564 1549 1512 -598 -514 1713 298 -414 -551 -798 523 -269 -489 1148 -241 2604 -218 -138 -614 -382 -252 -86 835 -243 1834 -225 238 1457 329 -408 -240 333 -864 -780 -207 -732 -1127 -486 -229 668 -210 -353 202 620 1987 1069 306 -565 241 -382 -225 -325 -55 -284 412 788 -268 2420 581 679 1638 482 -23 -263 -372 942 -497 -199 -259 -264 -183 -237 -18 697 -350 -156 1790 1290 1724 852 -212 2957 2507 1079 1881 -600 1089 1083 -377 -157 -765 525 157 1628 246 910 -312 -250 -565 -305 233 -378 825 727 112 -276 -239 -747 -37 -397 -208 -678 -511 905 -299 366 -645 -128 -506 -257 -549 1138 -232 -491 -141 1680 1201 1763 -158 -580 -70 -242 -361 1294 1311 1275 1230 -51 -508 116 1983 281 -262 -265 1190 -626 457 1305 485 1719 2421 