1.7642328572838786e-05
0
-400 831 -303 -204 1495 1537 1574 411 955 96 -109 1777 -164 1209 712 2015 458 72 -57 -1002 270 -311 858 -324 375 1115 1442 -153 -327 1008 -702 822 -501 -650 -494 -47 309 -262 573 2321 552 785 799 2289 222 348 825 -114 793 1955 1554 -53 1629 -2 22 -414 1789 493 98 2199 -383 2213 -34 -710 65 -496 -939 494 181 -305 1693 317 -314 1347 -570 169 103 -202 1491 1120 1135 193 276 -19 282 1577 199 856 2040 -192 -397 -149 780 1257 1944 -27 1811 1355 2128 48 617 1395 -61 -765 1203 296 560 155 -46 216 1351 49 148 178 590 969 1782 823 -110 -595 781 1725 988 907 1178 -314 877 181 -350 271 535 258 718 768 899 -518 1069 1543 122 -734 -129 -25 1441 460 481 -228 285 234 -340 -323 406 764 42 -351 -349 229 737 -759 -36 713 473 419 599 404 -741 -176 123 -919 331 717 908 -195 883 1093 -407 -753 494 251 119 9 -70 86 518 118 -204 614 873 -545 1483 -117 478 561 -851 -404 242 399 423 928 396 -748 1294 598 -112 -73 -437 -160 73 181 1154 496 699 1511 485 334 792 -444 1311 1402 739 243 623 -337 301 -204 -51 -449 411 -95 178 739 -29 331 -493 -413 1091 97 -364 777 1346 -416 -391 915 1224 53 75 -563 -194 262 1587 -295 -231 1381 430 -953 797 -641 339 940 1038 1805 339 -789 -268 -511 198 -413 1017 -714 1473 65 1684 -39 -365 525 443 1073 241 -1043 1185 -249 1146 1118 -925 -16 277 -1 -889 1297 1134 103 305 1253 -111 1084 544 32 573 579 -658 601 440 1330 62 1982 1121 -275 44 582 -494 15 -596 98 978 480 53 731 -209 441 1219 1747 -5 1986 941 1466 -852 40 -749 424 -558 -45 728 809 -45 -916 -30 1054 939 663 -616 657 -118 1111 -1007 -300 148 898 -222 -113 -770 1427 1098 205 -594 1036 -986 1224 -995 491 -624 103 570 660 -14 -283 333 278 343 1187 -238 825 831 306 711 732 -791 -733 59 1113 -139 -563 -757 -5 2006 -733 490 652 553 1031 598 -267 794 76 -182 1519 236 110 444 806 1196 951 558 389 -87 1427 885 -416 400 425 -557 1183 -103 -305 1016 -1220 -1028 -267 1194 -232 -387 1673 881 338 234 53 504 912 2254 692 495 397 -115 -334 -197 449 653 -334 565 -323 -48 -125 709 593 -138 600 -503 -162 -670 870 363 838 1067 -214 517 -451 444 -188 2175 -537 495 42 724 54 778 -235 -196 -568 328 -456 309 536 1727 10 284 528 260 1641 144 1120 683 496 1860 2248 838 -95 -324 -33 40 1172 1499 841 -399 -450 -657 -126 146 -338 -178 -584 681 1303 536 224 480 1679 -94 -787 599 325 479 -39 553 691 135 -264 -43 -4 93 -42 2204 -576 1275 237 22 1545 992 700 602 -714 -416 908 597 368 -262 -3 1156 848 712 391 -340 794 335 -43 392 398 -296 1076 -51 624 -89 155 12 -557 357 385 181 1334 906 -208 171 -430 -553 -462 -630 1032 818 423 1998 -222 -217 -13 361 -294 521 -347 -94 1170 -706 928 61 284 865 725 1511 -760 -360 542 1350 -215 911 705 836 510 -564 -673 649 2386 226 -310 458 472 654 -93 -346 1254 -755 -455 498 -514 2053 619 1348 311 -288 -33 -375 834 55 1250 -599 -342 545 -345 -552 1789 9 -908 169 221 201 -18 -35 694 670 1477 1451 -102 564 -273 -308 -302 396 -756 -307 485 1537 413 -215 -780 140 84 297 -426 -64 1612 481 1123 23 998 -141 -316 -390 -610 426 914 608 1576 1195 -241 280 1731 6 -601 641 -746 -163 989 371 271 185 206 984 -36 2117 1067 730 1140 -622 1500 624 523 2112 286 -136 -628 600 447 -507 527 1672 -33 314 2088 1575 -540 -13 -405 -652 859 204 537 -381 68 815 128 -300 28 969 -57 -388 323 424 1206 762 620 28 494 -489 171 634 948 251 65 -74 -127 654 105 -233 1140 156 421 -158 1510 491 276 281 393 1694 1351 877 372 17 671 -617 -539 -687 787 -331 874 1109 -1003 182 772 870 -376 -106 -460 -148 -395 1023 1224 1654 302 1479 1609 -454 363 -40 -106 -360 396 -329 -113 241 1927 976 -713 -567 864 155 786 421 1073 708 -751 -250 2360 2087 596 -538 -271 231 -561 1595 -432 179 -958 -133 336 1078 1138 -222 -534 271 -807 371 1384 -556 1014 167 619 906 -260 1566 634 -216 -247 -444 586 26 593 1883 20 -107 2255 -164 505 206 1880 340 909 52 74 20 1591 -477 452 -115 -5 332 1645 1484 522 -386 1156 477 43 285 874 941 1603 620 1618 220 807 452 -65 -383 1433 160 835 140 70 -421 -481 440 -366 1205 12 -550 332 -318 249 986 -421 193 -453 296 1517 -810 72 1766 854 654 961 -522 -565 -681 1069 -233 -852 928 208 111 947 287 -815 331 1197 716 -832 -401 1545 687 715 901 1004 -282 -708 1331 -321 316 352 703 2102 422 -76 1312 1010 168 2657 1612 1585 -697 -816 -376 2823 1482 -316 271 -636 396 268 213 -190 -753 828 -477 -306 145 132 1520 8 102 -291 1548 -92 -565 -976 538 -247 -1538 927 -768 629 -452 192 -21 557 1004 764 781 895 124 -141 -467 148 -300 -314 -1177 366 432 615 1190 -522 -399 484 -703 1767 319 9 640 945 -348 338 1684 2039 -114 1406 -62 1545 428 -230 46 -691 1551 -229 -300 -251 -769 -438 513 718 173 218 -771 298 810 -124 13 235 360 -371 -508 2343 1135 -678 625 1506 284 -306 -141 324 148 -658 1113 2252 -146 1279 152 334 11 -595 296 621 1702 450 -643 183 -1012 984 1578 166 5 -793 27 56 164 111 -296 -509 533 252 684 1200 -354 1374 545 1745 1275 34 343 1753 -583 453 1235 -393 1783 252 -62 -708 -97 -824 -22 663 -546 -649 2092 -84 -712 845 459 214 -541 -123 -517 159 -842 328 1510 845 -295 392 -27 1485 15 2184 137 -316 -179 801 897 674 2558 -293 -153 -329 1270 -22 1170 -378 -12 -604 255 -185 -525 341 33 -596 -821 -739 430 -224 1627 1081 -89 485 36 55 137 -66 -142 -212 -60 -110 1159 76 -452 -1191 575 1371 148 74 863 -53 -684 -511 -333 2070 -482 1244 606 318 -192 -22 -827 -469 -258 860 583 229 115 -1040 -797 1524 210 623 169 438 -545 385 88 -32 -341 1087 -131 1178 -287 -287 804 576 1558 133 1401 676 751 933 653 742 291 1388 1218 872 19 -376 286 -187 -97 -446 -53 1172 1148 356 -462 1559 1043 483 -201 -507 -169 385 542 -804 342 -286 1311 436 189 302 -389 -91 -224 -284 -216 59 -120 -658 1548 1191 -719 -820 342 61 -200 296 669 642 905 1667 -338 102 680 1130 1268 -14 1590 -54 635 695 945 94 -65 -87 -21 1397 1289 0 737 1047 1098 -109 -121 901 -93 -512 1876 902 -257 533 341 376 99 931 356 -207 1582 361 603 1665 -64 255 -560 1828 661 1514 -228 881 788 492 721 573 375 443 192 1657 656 1969 607 129 -379 621 -82 -603 1953 -186 1995 -307 -1162 523 -556 76 313 -273 832 644 98 714 23 1060 6 893 618 214 679 -714 -674 576 326 56 1001 -430 -424 1548 1392 96 14 318 -668 494 552 681 -721 1531 -882 1549 459 205 453 1989 1399 -183 1100 337 41 68 -181 -645 -595 870 -200 -409 -221 1072 293 -81 1610 453 1149 163 760 576 1754 363 -252 969 1379 151 372 614 1397 -699 1384 -345 1098 76 438 840 1979 344 249 1497 -937 626 1004 1620 312 1211 1156 183 1669 -39 840 812 393 -1136 -192 -314 307 -317 1370 1134 526 894 -1101 -124 -508 867 -513 685 1529 241 284 487 446 -388 938 -237 481 -89 -664 1124 706 565 151 1040 423 290 -173 1186 1597 1548 1986 468 149 -207 692 -322 1186 -196 821 520 275 677 -17 107 596 967 -690 -356 -139 -137 1409 1024 -651 -902 809 577 -648 796 427 242 1019 -61 -357 -167 885 -636 251 706 832 -757 49 995 -26 -519 358 1 -585 673 920 -735 2353 1473 1427 -239 -11 1536 257 -551 917 152 519 62 -502 59 67 -19 1411 -269 864 -287 772 1106 1406 1650 481 847 464 914 409 377 -171 -346 1986 764 -318 264 684 -485 -716 494 -163 -668 1474 40 882 559 -180 1099 2233 -564 1879 -23 1049 -270 -258 655 474 476 1092 120 645 -192 726 556 814 552 2333 181 -938 -766 -242 209 -91 156 789 968 -159 763 -73 -497 624 186 -189 -221 1484 588 -1165 1679 -381 1791 -978 1177 776 -647 1352 329 482 -203 1671 1808 615 -225 464 -278 -390 -328 1900 399 -1494 -94 278 -738 1268 8 1345 -77 679 1397 732 1409 -194 -834 1058 1511 26 680 -661 1763 -86 523 183 1211 508 501 -447 1548 474 170 -601 1508 1333 1087 -106 -125 431 1725 640 -163 247 400 389 -1080 -450 936 -1106 -156 -326 1224 1871 100 340 1326 1700 -242 289 -285 1732 90 666 145 -701 549 -90 -413 1267 6 690 -387 904 259 -432 620 -175 170 625 1525 434 512 211 377 531 360 2 438 421 1610 19 658 530 1130 870 949 1584 787 1353 6 -103 -587 737 1521 649 -431 -257 1353 650 869 -76 353 216 1327 971 -464 2132 -133 -110 24 -445 570 664 847 443 -224 -27 -49 -283 43 347 -222 -79 -65 861 -41 444 1144 -300 941 203 724 356 -429 1987 372 746 -690 714 1816 336 748 870 439 1908 1859 -297 -45 748 -593 -368 1619 635 -421 1628 -59 400 -500 1195 738 1748 863 306 -23 -694 898 804 179 -213 1441 -1117 642 5 815 104 -217 201 268 -357 741 727 -648 -116 583 775 -235 -1023 48 1291 665 1023 -490 -159 -758 826 232 714 993 697 -579 894 -239 -682 857 1007 298 -134 699 -188 778 -21 1605 237 -727 833 840 358 -915 1190 -17 900 1188 29 91 301 -165 -223 -147 379 962 112 1049 237 1180 510 881 643 -610 -302 283 1279 758 -10 1793 -355 1387 525 186 -28 -580 705 -330 451 696 -235 191 344 -214 -668 -404 308 -55 147 -485 1372 -536 1026 1797 399 -348 284 513 -648 -34 1088 1340 -222 238 -465 1034 2103 287 -441 595 -321 1380 2100 5 -83 155 1760 -593 657 -442 -533 -145 417 88 975 439 -137 189 -396 -789 582 1384 739 307 886 163 94 -69 1521 1047 504 -989 -304 -242 -471 479 1326 814 -362 1003 -473 296 49 -145 -866 498 839 598 108 9 -362 667 560 677 32 -379 949 48 -1060 -250 -739 -24 219 1748 -581 283 -70 399 77 486 178 556 1463 1494 637 -237 188 1191 -453 247 1609 -17 942 126 1313 -504 555 373 2192 295 954 -188 2 1468 881 -89 441 65 156 1120 -457 -326 1093 1492 -303 336 772 -493 -13 -976 33 447 -398 -389 -773 133 914 511 -198 76 -89 -96 305 676 498 -9 414 589 -858 2075 778 -53 -746 1392 -487 82 -936 455 315 176 -664 961 435 620 -625 536 2050 680 692 240 -168 508 1285 931 -694 -474 488 543 1556 -88 198 -1108 389 1658 -703 -421 840 972 101 -284 396 -247 -251 -971 1323 1421 1245 1139 921 164 -559 617 1426 1289 1250 -1071 611 19 1443 905 488 865 -19 -36 -126 -194 861 947 1596 401 -523 829 2 -6 2336 -45 821 -448 207 -814 -224 1170 447 -5 188 -535 1114 -116 -202 1277 431 369 1047 707 -794 1967 -740 393 1008 -131 315 1206 -294 -174 111 2242 -316 188 1691 -403 -166 -640 -841 722 6 1903 16 -23 -449 1054 49 690 1718 550 -619 1776 163 -365 2055 -615 677 -741 -618 237 65 114 -567 950 813 584 356 698 -191 -44 884 79 2221 -694 535 607 -282 600 -387 -427 -145 456 -262 -493 880 1169 -278 161 295 705 215 -739 -1118 53 740 314 -310 -613 1092 -353 -307 712 687 -399 -432 1412 649 829 -5 815 119 1038 534 1371 1698 160 853 957 -515 381 -774 1084 -287 45 383 -146 1793 586 701 -296 -39 -524 272 335 555 -46 408 1032 814 -676 602 970 68 81 1611 -1 615 -778 820 -316 67 -500 198 773 -280 -625 341 -429 1229 576 279 91 374 1100 -891 -66 994 2352 -304 -454 235 -143 -122 1087 466 1557 -88 332 -313 -98 1634 47 361 23 2280 959 -388 -230 689 1196 546 -578 54 49 57 572 -78 154 -384 -151 470 23 -205 -308 841 -593 -642 -73 755 1033 994 -497 838 156 -919 -1253 921 -377 675 1445 -278 1238 -1 669 -330 -3 1248 1539 -886 473 505 693 762 1212 773 1544 1730 454 492 -31 -414 348 550 1600 -811 392 1397 431 -413 -303 165 832 2122 474 -870 -474 67 908 325 797 1098 2260 1544 1869 -201 -297 787 -108 305 -208 987 767 1065 -673 -597 -406 -21 352 -807 -406 -168 371 1613 -807 709 -1009 899 -19 1395 -327 74 804 612 220 -263 1447 -61 -378 1249 279 -21 -28 1731 -889 -544 218 927 -211 203 1556 436 1568 674 632 217 -406 255 265 -159 -802 -296 449 311 201 -746 -397 -228 1718 -854 198 -462 85 -528 573 629 357 959 -203 1836 184 79 1637 -319 -105 -327 -149 2238 564 -317 1528 1365 1586 470 711 2164 841 1340 1431 75 487 117 540 -338 -1243 1825 -468 1360 374 779 -294 17 1037 1344 543 -633 647 1400 769 1693 517 1339 -45 113 -1056 -967 754 581 603 -652 -137 1700 1696 1224 1517 -557 68 400 1127 1276 53 2419 170 1047 -692 913 -65 180 -280 166 -459 269 -836 254 1442 -265 92 105 -164 -204 -147 730 188 1438 715 634 -216 298 1079 673 1555 -289 -434 309 239 -306 -461 402 1225 -156 -178 -292 956 -483 1530 -247 -478 -181 -527 -649 625 1283 471 -382 703 -218 47 -448 354 -191 438 -606 -202 -105 227 -787 290 -160 -469 658 762 -715 1925 -232 817 934 351 -423 598 1462 -1070 237 565 497 -488 -482 112 912 882 68 1373 1528 1671 -79 80 100 -250 138 855 313 -184 1070 -311 645 219 2326 -627 -534 896 1373 143 1211 -36 534 684 -210 -1024 1574 1419 71 54 844 1089 627 1123 1734 -513 1016 410 -446 570 -916 -44 358 -267 549 171 -312 -664 1532 -440 585 184 -408 979 -652 -460 -585 1298 1434 1323 416 -210 290 786 898 1092 2218 676 1299 1113 419 837 -189 -306 507 548 1533 245 453 451 -615 31 47 -385 287 -16 48 -436 -176 777 113 120 -161 639 -207 -32 -714 441 -138 1384 639 902 1430 451 56 1836 -359 624 465 707 227 -1086 1364 -263 111 -1345 1974 480 2014 10 404 -445 1227 108 -297 -821 753 6 -122 -270 923 -542 1674 1 -787 1010 -311 -600 0 -599 540 567 -349 38 732 1883 -266 -105 -497 841 -1243 -260 1755 -907 60 -408 252 -1480 -669 1404 -441 1008 2210 -264 1558 1352 140 594 257 -396 1061 -413 1594 229 1534 913 -164 -760 -397 293 372 1582 -431 782 -332 -298 12 1312 -500 -243 -38 1397 -161 -95 1467 -748 1033 -398 1342 358 1402 -158 124 -200 -468 -102 1195 330 -112 -507 2042 1586 -436 310 412 -403 8 -653 -9 1230 941 -114 -408 964 619 461 -267 1166 751 370 1074 -332 -60 -52 537 569 184 1329 1557 751 -632 -852 247 167 -539 838 427 -122 1631 -46 -632 -458 784 -82 1221 26 -379 -117 -115 368 -158 507 836 302 -118 197 30 1821 -49 1480 -144 2212 255 1360 70 -1010 186 -287 947 22 -172 23 696 -295 278 1 1184 1452 -504 -616 1155 370 1331 2280 608 1778 -197 760 1153 -9 5 -284 -14 -730 1544 -241 805 1295 1422 1509 1196 -364 1044 63 -71 779 -328 1736 674 -231 456 -150 1034 1032 659 935 -1154 1315 189 -211 -360 2051 -108 430 1418 1565 949 1236 766 444 -387 797 2111 93 -8 537 203 237 842 -394 613 -63 1594 560 294 1376 -108 -301 -1032 -144 551 -411 1903 769 304 -574 1218 738 -78 -453 160 -482 1697 154 -934 566 -333 -662 293 1009 223 459 693 1043 1074 -486 292 303 297 324 -104 411 232 934 1355 713 201 404 412 61 382 328 1137 310 -222 84 719 526 -1074 402 1373 -87 740 -197 -242 -538 -245 161 -179 -417 -265 235 225 -319 -106 600 96 1037 357 554 -322 1182 1126 1322 -37 -351 -182 402 259 859 193 274 412 1393 887 917 1323 -292 -791 -284 -540 125 1861 1657 307 483 1980 -7 -277 1528 -363 -98 -472 87 1419 -777 377 -331 -78 366 1265 768 313 -246 -340 975 598 754 453 10 156 -625 1590 -63 1153 1116 -434 648 695 -580 190 -136 47 -243 652 862 2493 330 414 -407 1254 -471 -241 1007 -65 300 163 954 2317 1528 358 1185 353 634 789 865 615 1264 -621 1267 832 -353 2041 339 2037 -807 549 -521 -213 859 -512 833 1998 421 248 -601 -469 -171 1499 -387 191 832 -23 944 435 -724 1330 129 1211 749 86 290 313 -287 1643 250 40 496 -889 -220 -484 101 -668 593 1496 298 1870 1004 43 1720 -251 378 842 387 -308 -577 -444 1282 227 -441 542 244 -238 -315 292 1606 538 367 176 1455 145 940 449 -846 -394 -990 -609 1174 1791 734 1489 783 1973 -294 -104 447 288 470 94 160 312 524 -221 595 -442 78 -117 1478 1117 1123 1284 1481 -292 -400 -373 738 437 309 186 265 523 2321 721 -504 190 49 146 299 31 -179 -219 -489 417 923 1606 1201 561 -334 -194 510 -1127 963 -570 -378 110 1654 134 -50 399 -113 710 -382 -652 566 273 417 796 130 1360 186 507 1107 -140 740 -682 979 414 12 -279 2610 68 439 -135 -142 179 -302 1750 -322 -765 -13 386 997 1472 1270 -341 1274 721 897 234 1933 1311 -386 1083 -339 557 1272 544 1174 -585 -680 -424 -119 1081 1235 12 1222 -183 602 369 1632 1151 224 -432 -250 633 87 762 377 -805 383 175 -523 978 -41 392 610 518 -107 1196 268 476 1135 810 185 961 1033 -710 -358 1017 971 958 1582 -264 1161 517 -392 -40 1945 207 -46 570 880 747 -181 -219 -513 145 255 -179 1103 321 588 1527 578 1614 -189 490 1395 607 -942 839 1530 -222 -207 625 427 49 -19 -44 -307 -317 2120 202 1357 1481 -625 -442 782 256 45 314 -445 543 -1135 -148 188 469 -171 819 851 1848 516 869 1274 -394 647 431 611 299 1961 393 -812 292 408 97 1778 99 -186 576 -115 1378 1155 44 -790 236 1141 946 -512 -162 -449 -236 694 -187 262 -130 360 684 -32 1884 1743 -784 -507 -57 631 -502 268 908 1884 -172 1541 -429 -565 -190 133 -328 -211 -13 296 292 -369 -544 218 -393 -145 -43 664 -232 413 1841 378 421 -951 1972 146 -211 574 382 -383 297 172 -3 1304 -675 242 405 299 544 -143 -665 1081 1247 1660 -188 886 1933 541 1826 70 1053 1924 312 411 23 383 429 -739 1345 711 -246 654 1077 -230 -772 1410 1039 510 1592 78 -663 -233 -313 1289 868 306 1228 720 1273 -651 -253 -254 -776 -327 2172 -413 -188 122 -330 708 11 487 -817 -102 410 -663 -596 137 803 -465 613 538 480 262 -307 1551 -719 1758 293 711 -199 1419 -470 -640 922 -388 60 230 295 -414 4 55 1770 -354 127 -179 1005 640 1847 -10 -232 830 133 221 -138 150 537 722 418 -802 967 -987 1316 722 642 1314 -469 183 1797 -583 -295 954 442 -176 353 536 147 435 806 -1024 68 811 184 -60 578 244 362 -744 1368 1649 285 1787 1021 -85 -102 897 82 217 1221 988 280 754 -160 775 891 1213 -583 616 768 165 -141 -500 787 900 905 -129 1373 819 24 2161 -390 549 -708 -31 -936 -481 -327 662 93 508 -543 268 915 429 -867 -313 515 492 136 522 277 792 1071 -301 202 189 586 -121 1740 868 -217 946 429 1643 388 -690 -502 -295 -1113 703 -237 -456 -147 -191 -614 1630 313 482 -785 -959 -948 470 -37 576 -568 541 1468 1391 248 -591 -58 2082 8 -926 -332 294 -417 743 679 641 1908 1873 -454 -634 313 1585 -220 1372 1588 -49 -452 -382 940 -530 398 1219 408 1747 -296 -244 -204 1261 -305 1368 -200 -179 -34 257 207 1010 38 561 1404 886 1195 -239 454 1278 1816 488 1476 632 -124 126 1442 -165 1984 -57 535 -346 -538 184 -261 1184 610 279 406 393 264 1068 1868 172 -118 -597 -517 185 464 304 -154 1329 -636 977 337 1578 -304 -192 -15 -625 50 655 981 44 2410 -345 1430 -706 -816 224 51 303 824 -1456 -326 111 -42 527 312 1575 1035 25 1306 -33 -29 339 -68 131 1616 783 1089 681 -252 250 -2 1680 -110 514 96 382 1647 593 835 670 1073 1429 119 -632 186 -234 513 1296 61 173 226 2043 -339 509 1697 445 -658 -1309 49 -1218 -985 149 1607 491 1921 1558 -482 -50 -511 1163 -1204 -322 1957 -50 714 -301 -236 5 -44 34 -680 51 -658 -108 641 1916 -170 997 1508 1537 365 1332 1301 -124 851 1118 -517 -539 349 -322 511 778 1385 -513 1230 1190 338 1581 -438 1765 2463 1486 167 471 368 1240 337 1747 275 -514 1122 166 -787 271 -233 1473 -230 820 -84 -80 -285 575 174 534 220 1775 979 970 423 -463 594 -161 -90 1145 -369 -172 -227 519 339 556 -435 2 339 -141 1517 805 104 -499 309 -1132 253 1527 854 -336 1405 -572 -330 310 635 2345 -59 -311 -141 154 621 43 -780 -438 -274 -459 -139 792 -741 1915 488 1179 58 1026 551 -261 147 1942 999 891 828 74 -792 758 2455 66 -533 -635 309 -317 421 47 382 416 224 -787 792 834 -45 1951 -885 120 403 725 330 1036 822 1277 -1229 421 115 1709 1608 299 -101 279 1417 485 599 229 1632 -791 2005 -761 -616 970 1340 1030 260 -450 479 -203 -200 1821 1817 47 -197 497 108 1042 1403 2447 -410 61 -656 606 205 139 -725 -337 1306 195 1515 1123 26 1044 16 -844 1434 142 -273 -692 260 -901 1126 106 216 -89 2221 -821 647 -666 29 56 116 -1042 233 1450 